{
  "type": "LSTM",
  "options": {
    "inputSize": 22,
    "inputRange": 22,
    "hiddenLayers": [
      20,
      20
    ],
    "outputSize": 22,
    "decayRate": 0.999,
    "smoothEps": 1e-8,
    "regc": 0.000001,
    "clipval": 5,
    "maxPredictionLength": 100,
    "dataFormatter": {
      "values": [
        "bong",
        "mercy Morillio",
        "mitching",
        "nexson oandsasan"
      ],
      "indexTable": {
        "b": 0,
        "o": 1,
        "n": 2,
        "g": 3,
        "m": 4,
        "e": 5,
        "r": 6,
        "c": 7,
        "y": 8,
        " ": 9,
        "M": 10,
        "i": 11,
        "l": 12,
        "t": 13,
        "h": 14,
        "x": 15,
        "s": 16,
        "a": 17,
        "d": 18,
        "stop-input": 19,
        "start-output": 20,
        "unrecognized": 21
      },
      "characterTable": {
        "0": "b",
        "1": "o",
        "2": "n",
        "3": "g",
        "4": "m",
        "5": "e",
        "6": "r",
        "7": "c",
        "8": "y",
        "9": " ",
        "10": "M",
        "11": "i",
        "12": "l",
        "13": "t",
        "14": "h",
        "15": "x",
        "16": "s",
        "17": "a",
        "18": "d",
        "19": null,
        "20": null,
        "21": null
      },
      "characters": [
        "b",
        "o",
        "n",
        "g",
        "m",
        "e",
        "r",
        "c",
        "y",
        " ",
        "M",
        "i",
        "l",
        "t",
        "h",
        "x",
        "s",
        "a",
        "d",
        "stop-input",
        "start-output",
        "unrecognized"
      ],
      "specialIndexes": [
        19,
        20,
        21
      ]
    }
  },
  "input": {
    "rows": 23,
    "columns": 22,
    "weights": {
      "0": -0.18155084550380707,
      "1": 0.1941681057214737,
      "2": -0.10402729362249374,
      "3": 0.7136554718017578,
      "4": -0.8717193603515625,
      "5": -0.5995705723762512,
      "6": 0.021924510598182678,
      "7": 0.07213638722896576,
      "8": 0.3425489068031311,
      "9": -0.2902085483074188,
      "10": 0.2171594500541687,
      "11": 0.6253361701965332,
      "12": 0.0797106921672821,
      "13": -0.5332469344139099,
      "14": 0.22069500386714935,
      "15": -0.5075547695159912,
      "16": 0.6575807929039001,
      "17": 0.22243988513946533,
      "18": -0.005655604414641857,
      "19": 1.0003021955490112,
      "20": 0.16167744994163513,
      "21": -0.2639482617378235,
      "22": 0.5302301049232483,
      "23": 1.0914037227630615,
      "24": 0.5599923729896545,
      "25": -0.643326997756958,
      "26": -0.0365823395550251,
      "27": 0.1807585060596466,
      "28": -0.1831975132226944,
      "29": 0.5428586602210999,
      "30": -1.3791838884353638,
      "31": 1.4228383302688599,
      "32": 1.3350623846054077,
      "33": -0.5077614784240723,
      "34": -0.21363967657089233,
      "35": 0.7533751726150513,
      "36": -0.3763366937637329,
      "37": 0.7519380450248718,
      "38": -0.47954416275024414,
      "39": -0.499364972114563,
      "40": -0.36379894614219666,
      "41": -0.8963846564292908,
      "42": 0.35343828797340393,
      "43": 0.6593106985092163,
      "44": -0.08425169438123703,
      "45": 0.2648560106754303,
      "46": 0.3558093309402466,
      "47": 1.0736364126205444,
      "48": 0.5115479230880737,
      "49": 0.39432740211486816,
      "50": -0.11901342123746872,
      "51": 0.31731849908828735,
      "52": 0.5828291773796082,
      "53": -0.3949774205684662,
      "54": 0.23500123620033264,
      "55": 0.8481106162071228,
      "56": 0.3098594844341278,
      "57": -1.0796022415161133,
      "58": 0.07052525132894516,
      "59": 0.32225143909454346,
      "60": 0.8243821263313293,
      "61": 0.39847108721733093,
      "62": -0.35216009616851807,
      "63": -0.39334195852279663,
      "64": -0.43046316504478455,
      "65": -0.43535366654396057,
      "66": 1.063015103340149,
      "67": -0.677784264087677,
      "68": -0.13926061987876892,
      "69": -1.4054560661315918,
      "70": -0.5220878720283508,
      "71": 1.0297194719314575,
      "72": -0.34415334463119507,
      "73": -0.454801470041275,
      "74": -0.7110050320625305,
      "75": 0.7068355083465576,
      "76": -0.3991653025150299,
      "77": -1.4216127395629883,
      "78": -0.3212265968322754,
      "79": 1.3221392631530762,
      "80": -0.6019379496574402,
      "81": 0.4751235246658325,
      "82": -1.3988083600997925,
      "83": -0.5388975739479065,
      "84": -0.08427836745977402,
      "85": -0.9603110551834106,
      "86": -0.060772791504859924,
      "87": 0.6535595655441284,
      "88": -0.47425320744514465,
      "89": 0.22968800365924835,
      "90": 1.2895398139953613,
      "91": 0.3147710859775543,
      "92": 1.9795671701431274,
      "93": 1.9015616178512573,
      "94": 0.4472335875034332,
      "95": 1.3310155868530273,
      "96": 0.2596253454685211,
      "97": -0.272831529378891,
      "98": -0.22153839468955994,
      "99": -0.22937673330307007,
      "100": 0.49174782633781433,
      "101": -2.2028613090515137,
      "102": -0.0463961586356163,
      "103": 1.2505906820297241,
      "104": 1.4518095254898071,
      "105": 0.6336285471916199,
      "106": -0.39564836025238037,
      "107": -1.5143945217132568,
      "108": -2.017756938934326,
      "109": -1.3292135000228882,
      "110": -0.8704277276992798,
      "111": 0.9297705888748169,
      "112": -1.0253149271011353,
      "113": 0.01636449433863163,
      "114": -0.2694138288497925,
      "115": -1.0866105556488037,
      "116": 1.0195955038070679,
      "117": -1.4125747680664062,
      "118": -0.16617214679718018,
      "119": -0.14749406278133392,
      "120": 1.0889911651611328,
      "121": 0.14111433923244476,
      "122": -1.0477683544158936,
      "123": -0.556960940361023,
      "124": 0.9213654398918152,
      "125": -1.2714687585830688,
      "126": 0.1549573540687561,
      "127": -1.0366969108581543,
      "128": 1.30322265625,
      "129": 0.9583489298820496,
      "130": 0.9905382990837097,
      "131": 0.9534146785736084,
      "132": 0.05704347416758537,
      "133": -0.5635010004043579,
      "134": 0.5394840240478516,
      "135": 0.798434853553772,
      "136": -0.23004402220249176,
      "137": 0.36066800355911255,
      "138": -0.7491528391838074,
      "139": 0.2307637631893158,
      "140": 0.708122730255127,
      "141": -0.7785615921020508,
      "142": -0.11711134016513824,
      "143": 0.7942734956741333,
      "144": 0.0863528698682785,
      "145": -0.2282414436340332,
      "146": -0.40110957622528076,
      "147": 0.29239222407341003,
      "148": 0.21144723892211914,
      "149": 0.09970901161432266,
      "150": -0.5727491974830627,
      "151": -0.568416953086853,
      "152": -0.28057530522346497,
      "153": -0.16619868576526642,
      "154": -1.2629634141921997,
      "155": 0.041906069964170456,
      "156": -0.6731256246566772,
      "157": -0.259726881980896,
      "158": -0.7459458112716675,
      "159": -0.9053804874420166,
      "160": 0.830935001373291,
      "161": -0.25830477476119995,
      "162": 0.11516858637332916,
      "163": 0.2683708071708679,
      "164": 0.6637073159217834,
      "165": 0.38155221939086914,
      "166": -0.7440599203109741,
      "167": 0.8185744881629944,
      "168": 0.15563690662384033,
      "169": -0.787682056427002,
      "170": -0.621624231338501,
      "171": -0.7294505834579468,
      "172": 0.19892120361328125,
      "173": 0.8613929152488708,
      "174": 0.95419842004776,
      "175": 0.5344721674919128,
      "176": -0.7117018699645996,
      "177": 1.3956226110458374,
      "178": -0.20770250260829926,
      "179": 0.6615909337997437,
      "180": 0.014263668097555637,
      "181": -0.3062286674976349,
      "182": 1.50877046585083,
      "183": -0.46581020951271057,
      "184": 1.8747930526733398,
      "185": -0.46422216296195984,
      "186": 0.48265281319618225,
      "187": 1.029727578163147,
      "188": -0.790769636631012,
      "189": -0.23090699315071106,
      "190": 1.1210523843765259,
      "191": -0.12861979007720947,
      "192": 1.208189845085144,
      "193": -0.7758509516716003,
      "194": 0.5020480751991272,
      "195": 0.26526641845703125,
      "196": 0.04239347204566002,
      "197": 0.8094037771224976,
      "198": 0.9829466342926025,
      "199": -0.34654921293258667,
      "200": -0.7261735200881958,
      "201": -0.6098756790161133,
      "202": -0.7238720655441284,
      "203": 1.8264245986938477,
      "204": 0.2533787190914154,
      "205": -0.6776073575019836,
      "206": -1.0312987565994263,
      "207": 0.6089316010475159,
      "208": -0.14258769154548645,
      "209": -0.6611402034759521,
      "210": -0.8649882078170776,
      "211": 1.230154275894165,
      "212": -0.049279794096946716,
      "213": 1.5160820484161377,
      "214": -0.5776110887527466,
      "215": -1.0966358184814453,
      "216": 0.2697264552116394,
      "217": -0.19578634202480316,
      "218": 0.6818605065345764,
      "219": 1.129759430885315,
      "220": -0.7153277397155762,
      "221": 0.8590725064277649,
      "222": -0.9762622714042664,
      "223": -0.02795233391225338,
      "224": -0.39709553122520447,
      "225": -0.9786381125450134,
      "226": 0.9298858642578125,
      "227": -0.9574182033538818,
      "228": -0.14366111159324646,
      "229": 0.0912042185664177,
      "230": 0.635259747505188,
      "231": 0.13921457529067993,
      "232": -1.0137488842010498,
      "233": 0.21605132520198822,
      "234": 0.7268029451370239,
      "235": -1.1598148345947266,
      "236": 0.02478540502488613,
      "237": -0.9674971699714661,
      "238": 0.7770431041717529,
      "239": 1.0621031522750854,
      "240": 0.9859079718589783,
      "241": 0.9520558714866638,
      "242": -0.8408910632133484,
      "243": 1.177284598350525,
      "244": -0.5550521612167358,
      "245": 0.46635690331459045,
      "246": 0.4407150149345398,
      "247": -0.3551730513572693,
      "248": 1.71645987033844,
      "249": 0.47557079792022705,
      "250": 0.7058615684509277,
      "251": -0.4549364149570465,
      "252": 0.8657232522964478,
      "253": 0.574730634689331,
      "254": -0.3831189274787903,
      "255": -0.060692720115184784,
      "256": 0.891507089138031,
      "257": -1.0635566711425781,
      "258": 0.6054667234420776,
      "259": 0.07633771747350693,
      "260": 0.7555151581764221,
      "261": 1.6645162105560303,
      "262": 0.3128947615623474,
      "263": 0.11992614716291428,
      "264": -1.2438530921936035,
      "265": 1.390966773033142,
      "266": -0.69944828748703,
      "267": 0.2669934034347534,
      "268": 0.13540871441364288,
      "269": -1.2011702060699463,
      "270": 0.9433691501617432,
      "271": -1.2459725141525269,
      "272": 0.3040896952152252,
      "273": -0.4541254937648773,
      "274": 1.5512224435806274,
      "275": 0.4403831362724304,
      "276": -1.1413544416427612,
      "277": 0.14863643050193787,
      "278": 1.4270622730255127,
      "279": -1.2212631702423096,
      "280": 0.33753520250320435,
      "281": -1.2532358169555664,
      "282": 1.005570411682129,
      "283": 0.6973876357078552,
      "284": 0.8704507350921631,
      "285": 1.221240758895874,
      "286": -0.12409864366054535,
      "287": 0.2461182177066803,
      "288": -0.5895460844039917,
      "289": 1.1522996425628662,
      "290": 0.987888514995575,
      "291": -0.9631790518760681,
      "292": -0.36508908867836,
      "293": -0.22340625524520874,
      "294": 2.1105775833129883,
      "295": -1.6268624067306519,
      "296": -0.19671478867530823,
      "297": 1.4327363967895508,
      "298": 0.06674095243215561,
      "299": -0.3173030614852905,
      "300": 0.13459114730358124,
      "301": -1.1972777843475342,
      "302": 1.3581089973449707,
      "303": 0.20746447145938873,
      "304": -0.4874067008495331,
      "305": 0.989747941493988,
      "306": 0.5049101710319519,
      "307": 0.6944103240966797,
      "308": 0.914435088634491,
      "309": 0.6988660097122192,
      "310": -1.6209319829940796,
      "311": -0.007515882141888142,
      "312": -2.047180652618408,
      "313": -1.2849724292755127,
      "314": 1.3486506938934326,
      "315": -0.9837095737457275,
      "316": -0.44586795568466187,
      "317": 0.508063554763794,
      "318": -0.03316890448331833,
      "319": -0.4421566128730774,
      "320": -0.21314837038516998,
      "321": 0.6947055459022522,
      "322": 0.24618174135684967,
      "323": -0.6874575018882751,
      "324": -0.4372877776622772,
      "325": -0.24377663433551788,
      "326": 0.7356605529785156,
      "327": 1.1554360389709473,
      "328": 1.714758276939392,
      "329": 0.4931333661079407,
      "330": 1.027414321899414,
      "331": 0.7018905878067017,
      "332": -1.4424359798431396,
      "333": -0.31141191720962524,
      "334": -1.5039728879928589,
      "335": 0.3371502459049225,
      "336": 0.6018781661987305,
      "337": -1.476155400276184,
      "338": -0.9533708095550537,
      "339": 1.0812125205993652,
      "340": 0.32505178451538086,
      "341": -0.4791881740093231,
      "342": -0.8011694550514221,
      "343": 0.9242517352104187,
      "344": 0.5158065557479858,
      "345": 1.2412077188491821,
      "346": -0.5488888025283813,
      "347": -0.8422743678092957,
      "348": 0.6107088923454285,
      "349": -0.6130432486534119,
      "350": 1.586143136024475,
      "351": 1.1924595832824707,
      "352": 0.29251042008399963,
      "353": -0.809657633304596,
      "354": 1.4528141021728516,
      "355": 1.8341985940933228,
      "356": 2.053095579147339,
      "357": -0.24927827715873718,
      "358": -0.7233861088752747,
      "359": 1.0991538763046265,
      "360": 0.5779536962509155,
      "361": -1.6165908575057983,
      "362": -0.8217986226081848,
      "363": 0.4440600574016571,
      "364": 0.952151894569397,
      "365": -1.7450381517410278,
      "366": -0.9443703889846802,
      "367": -0.14396680891513824,
      "368": 1.754860520362854,
      "369": 1.0876986980438232,
      "370": -0.9167226552963257,
      "371": -0.6017507314682007,
      "372": -1.5256496667861938,
      "373": -1.8119982481002808,
      "374": -1.0796332359313965,
      "375": 1.3481025695800781,
      "376": -0.9716739654541016,
      "377": 0.2019956260919571,
      "378": 0.5071185827255249,
      "379": -0.824164867401123,
      "380": 1.1592669486999512,
      "381": -1.001230001449585,
      "382": -0.3641394376754761,
      "383": 0.3664996325969696,
      "384": 1.4099841117858887,
      "385": 0.5240901112556458,
      "386": -1.1648672819137573,
      "387": -0.19746530055999756,
      "388": 1.1188509464263916,
      "389": -1.1203619241714478,
      "390": 0.1260732263326645,
      "391": -1.1446610689163208,
      "392": 1.4511209726333618,
      "393": 0.9832749962806702,
      "394": 1.3067363500595093,
      "395": 0.8691102862358093,
      "396": 0.17151197791099548,
      "397": 0.06891816109418869,
      "398": 0.6180968284606934,
      "399": 1.478013515472412,
      "400": 0.6205189228057861,
      "401": 0.28486448526382446,
      "402": -0.595456063747406,
      "403": 0.37621742486953735,
      "404": 0.3171398639678955,
      "405": -0.4368206560611725,
      "406": 0.08686255663633347,
      "407": 1.102554202079773,
      "408": 0.68340665102005,
      "409": -2.188851833343506,
      "410": -0.09607715904712677,
      "411": 0.36471349000930786,
      "412": 1.2875235080718994,
      "413": 0.6960251331329346,
      "414": -0.49315494298934937,
      "415": -0.5542075634002686,
      "416": -0.6004860997200012,
      "417": -0.6684527397155762,
      "418": 1.611035704612732,
      "419": -0.4503462016582489,
      "420": -0.2894876003265381,
      "421": -1.3811819553375244,
      "422": -0.5979137420654297,
      "423": -0.4420046806335449,
      "424": -0.033174239099025726,
      "425": -0.3402499556541443,
      "426": -1.2188148498535156,
      "427": 1.0153634548187256,
      "428": -0.09434761106967926,
      "429": -1.6705727577209473,
      "430": -0.7927401065826416,
      "431": 1.2907503843307495,
      "432": 0.11043992638587952,
      "433": -0.21791541576385498,
      "434": -1.2431353330612183,
      "435": -1.0240156650543213,
      "436": 0.27714425325393677,
      "437": 0.29744648933410645,
      "438": 0.29743218421936035,
      "439": 0.8112234473228455,
      "440": 0.1370779573917389,
      "441": -0.04858985170722008,
      "442": 0.4870120882987976,
      "443": 1.0752992630004883,
      "444": 1.0878889560699463,
      "445": 0.3029710352420807,
      "446": -0.16984297335147858,
      "447": 0.4098021388053894,
      "448": 1.2906949520111084,
      "449": -1.0933246612548828,
      "450": -0.12220589816570282,
      "451": 1.3292938470840454,
      "452": 0.25918465852737427,
      "453": -0.7861184477806091,
      "454": -0.2591477036476135,
      "455": 0.34430158138275146,
      "456": 1.1680161952972412,
      "457": 0.36178645491600037,
      "458": -0.30772045254707336,
      "459": -0.14663110673427582,
      "460": -0.5923190116882324,
      "461": -0.1957336664199829,
      "462": 0.9677346348762512,
      "463": -1.1373652219772339,
      "464": -0.0019585236441344023,
      "465": 0.6190955638885498,
      "466": 0.277455598115921,
      "467": -0.011737745255231857,
      "468": -0.8559956550598145,
      "469": 0.25853076577186584,
      "470": 0.3507992625236511,
      "471": -0.42165517807006836,
      "472": -0.8191213607788086,
      "473": 0.4039367437362671,
      "474": 0.7145668268203735,
      "475": -0.3030449151992798,
      "476": -0.9460871815681458,
      "477": 0.05497133731842041,
      "478": 0.4156704843044281,
      "479": 0.6703282594680786,
      "480": -0.6593840718269348,
      "481": -0.2883528470993042,
      "482": -0.14981405436992645,
      "483": -0.5302234888076782,
      "484": 0.01020398922264576,
      "485": 0.02140095829963684,
      "486": -0.046320538967847824,
      "487": 0.049866799265146255,
      "488": -0.00747297890484333,
      "489": -0.0632733404636383,
      "490": 0.05215657874941826,
      "491": 0.010911352932453156,
      "492": 0.021590089425444603,
      "493": -0.010874852538108826,
      "494": -0.023705702275037766,
      "495": 0.06564847379922867,
      "496": 0.057045772671699524,
      "497": -0.02955412119626999,
      "498": -0.06053049862384796,
      "499": -0.0064668734557926655,
      "500": -0.010335265658795834,
      "501": -0.011138617992401123,
      "502": -0.04548851028084755,
      "503": 0.04256673529744148,
      "504": -0.0304973553866148,
      "505": 0.005910330452024937
    }
  },
  "hiddenLayers": [
    {
      "inputMatrix": {
        "rows": 20,
        "columns": 22,
        "weights": {
          "0": -0.5338926315307617,
          "1": 0.36987513303756714,
          "2": -0.3295060694217682,
          "3": 0.232252836227417,
          "4": 0.9160064458847046,
          "5": 0.3065893054008484,
          "6": 0.43431127071380615,
          "7": -0.6986870765686035,
          "8": 0.15134961903095245,
          "9": -0.4245225191116333,
          "10": 0.5571762919425964,
          "11": 0.32958775758743286,
          "12": -0.5419057607650757,
          "13": -0.34212613105773926,
          "14": 0.7341166734695435,
          "15": -0.19069308042526245,
          "16": 0.3716824948787689,
          "17": -0.5915402173995972,
          "18": 0.6262562870979309,
          "19": 0.16821761429309845,
          "20": 0.06321195513010025,
          "21": 0.5290651917457581,
          "22": -0.31808629631996155,
          "23": 0.48991188406944275,
          "24": -0.7263889908790588,
          "25": 0.0028161206282675266,
          "26": -0.8560195565223694,
          "27": -0.7083624005317688,
          "28": 0.6408060789108276,
          "29": -0.7187013030052185,
          "30": -0.32348427176475525,
          "31": 0.26038751006126404,
          "32": 0.5643999576568604,
          "33": -0.16062147915363312,
          "34": -0.8471437096595764,
          "35": 0.2513795495033264,
          "36": 0.9369516968727112,
          "37": -0.21668531000614166,
          "38": -0.23100154101848602,
          "39": -0.9024763107299805,
          "40": 0.9317809343338013,
          "41": 0.9635568857192993,
          "42": 0.9373088479042053,
          "43": 0.5048640370368958,
          "44": 0.2934252619743347,
          "45": -0.4329608380794525,
          "46": 0.22031842172145844,
          "47": 1.289972186088562,
          "48": 0.95753014087677,
          "49": 0.2937241196632385,
          "50": -0.08892155438661575,
          "51": 0.16302424669265747,
          "52": 1.2876724004745483,
          "53": -1.1456178426742554,
          "54": -0.023922979831695557,
          "55": 1.361125111579895,
          "56": 0.39300021529197693,
          "57": -0.8878977298736572,
          "58": 0.237153097987175,
          "59": 0.44511792063713074,
          "60": 1.201375126838684,
          "61": 0.33097532391548157,
          "62": -0.2646873891353607,
          "63": -0.40288209915161133,
          "64": -0.24896714091300964,
          "65": -0.20517513155937195,
          "66": 0.22472262382507324,
          "67": -0.44958609342575073,
          "68": 0.8609387278556824,
          "69": -0.621670663356781,
          "70": 0.8516212701797485,
          "71": 0.7448229193687439,
          "72": 0.010610847733914852,
          "73": 0.8187961578369141,
          "74": -0.1857730597257614,
          "75": -0.13615703582763672,
          "76": -0.8445916771888733,
          "77": -1.0293370485305786,
          "78": 0.4571426808834076,
          "79": -0.301308810710907,
          "80": -0.34126824140548706,
          "81": 0.8914278149604797,
          "82": 0.18203769624233246,
          "83": 0.4428465962409973,
          "84": -0.29280200600624084,
          "85": -0.6584677696228027,
          "86": -0.8384742140769958,
          "87": -0.6178827285766602,
          "88": 0.6102790236473083,
          "89": -0.46762481331825256,
          "90": -0.19556891918182373,
          "91": -0.5387386083602905,
          "92": -0.2162104845046997,
          "93": 0.3393121361732483,
          "94": -0.43858250975608826,
          "95": -0.40956956148147583,
          "96": -0.6581138968467712,
          "97": 0.5106489062309265,
          "98": -0.42183253169059753,
          "99": -0.5011593699455261,
          "100": -0.19653752446174622,
          "101": 0.32120779156684875,
          "102": -0.3925962448120117,
          "103": 0.21845491230487823,
          "104": -0.47038525342941284,
          "105": -0.28758135437965393,
          "106": 0.069102443754673,
          "107": -0.22535400092601776,
          "108": 0.22848978638648987,
          "109": 0.4615916907787323,
          "110": -0.025133494287729263,
          "111": 0.8362559676170349,
          "112": -0.15963327884674072,
          "113": 0.7291350960731506,
          "114": 1.1180469989776611,
          "115": -0.020967280492186546,
          "116": 0.8095945119857788,
          "117": -0.08361930400133133,
          "118": 0.4392874240875244,
          "119": -0.3807699382305145,
          "120": 0.2503688931465149,
          "121": 0.38808029890060425,
          "122": 0.09009219706058502,
          "123": -1.367844820022583,
          "124": 0.6658111810684204,
          "125": -0.04750175029039383,
          "126": 1.0639944076538086,
          "127": 0.2769276797771454,
          "128": 0.27703940868377686,
          "129": 0.30997434258461,
          "130": -0.16351675987243652,
          "131": 0.18118377029895782,
          "132": 0.8463113903999329,
          "133": -0.20259414613246918,
          "134": -0.08095274865627289,
          "135": -0.5927016735076904,
          "136": -0.4152088165283203,
          "137": 0.45320001244544983,
          "138": -0.11428987234830856,
          "139": -0.1227189227938652,
          "140": -0.6567490696907043,
          "141": 0.6105825901031494,
          "142": -0.2265177220106125,
          "143": -0.5409400463104248,
          "144": -0.1350977122783661,
          "145": 0.6601550579071045,
          "146": 0.033887993544340134,
          "147": 0.2633933424949646,
          "148": -0.5656290650367737,
          "149": -0.21029366552829742,
          "150": -0.11271864920854568,
          "151": -0.6662954688072205,
          "152": 0.1329629123210907,
          "153": 0.20327389240264893,
          "154": 0.41804227232933044,
          "155": -0.30988579988479614,
          "156": 0.15465669333934784,
          "157": -0.6404402256011963,
          "158": -0.3170042932033539,
          "159": 0.9041705131530762,
          "160": -0.41937705874443054,
          "161": 0.25537753105163574,
          "162": -0.5679872035980225,
          "163": 0.4836462438106537,
          "164": -0.17536498606204987,
          "165": -0.6306711435317993,
          "166": -0.23522678017616272,
          "167": 0.5668658018112183,
          "168": -0.47117334604263306,
          "169": 0.5742571949958801,
          "170": -0.6761996746063232,
          "171": -0.29244476556777954,
          "172": -0.0788690373301506,
          "173": -0.4041730761528015,
          "174": -0.00819031335413456,
          "175": 0.1948690116405487,
          "176": 0.481967568397522,
          "177": -0.6007406115531921,
          "178": -0.07242318242788315,
          "179": -0.41392114758491516,
          "180": -0.06961376965045929,
          "181": 0.49762269854545593,
          "182": -0.46626076102256775,
          "183": -0.3974643051624298,
          "184": -0.2124633640050888,
          "185": 0.21572239696979523,
          "186": -0.5828380584716797,
          "187": -0.4156631827354431,
          "188": -0.14865823090076447,
          "189": 0.38135361671447754,
          "190": -0.17855273187160492,
          "191": 0.21303780376911163,
          "192": -0.2947103679180145,
          "193": -0.1653851866722107,
          "194": 0.09298203885555267,
          "195": -0.16544006764888763,
          "196": 0.0037422848399728537,
          "197": 0.292094886302948,
          "198": 1.1606394052505493,
          "199": -0.7146602869033813,
          "200": 0.45189109444618225,
          "201": 0.6542355418205261,
          "202": 0.9386648535728455,
          "203": 0.9467998147010803,
          "204": 0.05004823952913284,
          "205": 0.43727055191993713,
          "206": 1.1238269805908203,
          "207": -0.5655799508094788,
          "208": -1.0178838968276978,
          "209": -0.006070117466151714,
          "210": 0.11435852199792862,
          "211": -0.7120031714439392,
          "212": -0.5990139245986938,
          "213": 1.1721253395080566,
          "214": 0.8868211507797241,
          "215": 0.14034274220466614,
          "216": -0.6530219912528992,
          "217": -1.0851454734802246,
          "218": -0.7509398460388184,
          "219": 0.07605742663145065,
          "220": 0.04238840565085411,
          "221": -0.06471211463212967,
          "222": 0.715846061706543,
          "223": 0.28710222244262695,
          "224": 0.7637420892715454,
          "225": 1.3027253150939941,
          "226": -0.2738388776779175,
          "227": 0.4983619749546051,
          "228": -0.10571534931659698,
          "229": -0.0015498960856348276,
          "230": 0.18829618394374847,
          "231": -0.07129336893558502,
          "232": 0.16459570825099945,
          "233": -0.6347053050994873,
          "234": -0.16665466129779816,
          "235": 1.023954153060913,
          "236": 0.1943177729845047,
          "237": -0.04100613668560982,
          "238": -0.2527550458908081,
          "239": -1.0262799263000488,
          "240": -0.581476628780365,
          "241": -0.2977989912033081,
          "242": 0.04136365279555321,
          "243": 0.591709554195404,
          "244": -0.7414844632148743,
          "245": -0.6441138386726379,
          "246": -0.1979934722185135,
          "247": -0.18029822409152985,
          "248": 0.6429390907287598,
          "249": -0.7660226225852966,
          "250": -0.6524279713630676,
          "251": 0.6122951507568359,
          "252": 0.8295506834983826,
          "253": -0.4847540855407715,
          "254": -0.9034721851348877,
          "255": 0.578982949256897,
          "256": 0.5098497271537781,
          "257": -0.19085679948329926,
          "258": -0.5282896161079407,
          "259": -0.9133961200714111,
          "260": 0.5353460907936096,
          "261": 0.3114243745803833,
          "262": 0.9336283802986145,
          "263": 1.127976655960083,
          "264": 0.3258615732192993,
          "265": -0.4969334602355957,
          "266": 0.34961533546447754,
          "267": 0.02613847143948078,
          "268": -0.12545254826545715,
          "269": 0.7877647876739502,
          "270": -1.03066086769104,
          "271": -0.038878992199897766,
          "272": -0.04160522669553757,
          "273": -0.1971609890460968,
          "274": -0.3686450719833374,
          "275": 0.08829236775636673,
          "276": 0.45510032773017883,
          "277": -0.02676241286098957,
          "278": -0.46463826298713684,
          "279": 0.49519917368888855,
          "280": -0.11301135271787643,
          "281": 0.2869851887226105,
          "282": -0.47992417216300964,
          "283": -0.6180019378662109,
          "284": -0.532621443271637,
          "285": -0.3718826472759247,
          "286": 0.527153730392456,
          "287": -0.549631655216217,
          "288": -0.2655770778656006,
          "289": -0.2885415554046631,
          "290": -0.06157684698700905,
          "291": -0.05982445552945137,
          "292": -0.5311446189880371,
          "293": -0.3772571086883545,
          "294": 0.1479925811290741,
          "295": 0.027760127559304237,
          "296": -0.5608471632003784,
          "297": -0.2606769800186157,
          "298": -0.093533456325531,
          "299": 0.3266579210758209,
          "300": -0.09123852849006653,
          "301": -0.11709745228290558,
          "302": -0.2809319794178009,
          "303": -0.03362924978137016,
          "304": -0.17304232716560364,
          "305": 0.2342488020658493,
          "306": 0.1752978414297104,
          "307": 0.40463677048683167,
          "308": 0.8679855465888977,
          "309": -0.1306089460849762,
          "310": 0.30629774928092957,
          "311": -0.6581511497497559,
          "312": 0.21217463910579681,
          "313": 0.9003020524978638,
          "314": 0.11321349442005157,
          "315": 0.1764199286699295,
          "316": -0.8907623291015625,
          "317": 0.8565751910209656,
          "318": -0.22791516780853271,
          "319": -0.8288751840591431,
          "320": -0.16199946403503418,
          "321": 0.0078893406316638,
          "322": -0.14269253611564636,
          "323": 0.6315291523933411,
          "324": -0.2790376842021942,
          "325": -0.13401417434215546,
          "326": 0.10808694362640381,
          "327": -0.7935177087783813,
          "328": -0.39327341318130493,
          "329": -0.06413041055202484,
          "330": 0.4309450387954712,
          "331": -0.5100485682487488,
          "332": 0.503186821937561,
          "333": 1.4695775508880615,
          "334": 0.9804765582084656,
          "335": -0.09474296867847443,
          "336": -0.03993913531303406,
          "337": 0.13533031940460205,
          "338": 1.9354195594787598,
          "339": -1.608785629272461,
          "340": -0.7128822207450867,
          "341": 0.13731233775615692,
          "342": 0.302371621131897,
          "343": -0.8940690159797668,
          "344": -0.36147746443748474,
          "345": 0.21612396836280823,
          "346": 1.9115052223205566,
          "347": 0.3037814199924469,
          "348": -0.3171682357788086,
          "349": -0.4496054947376251,
          "350": -0.5087275505065918,
          "351": 0.08047058433294296,
          "352": 0.19440403580665588,
          "353": 0.007418724708259106,
          "354": -0.3313254415988922,
          "355": -0.6130847334861755,
          "356": -0.43688613176345825,
          "357": -0.05702841654419899,
          "358": -0.2595381736755371,
          "359": -1.0391457080841064,
          "360": -0.6698410511016846,
          "361": 0.13146637380123138,
          "362": 0.22408659756183624,
          "363": -0.46663129329681396,
          "364": -0.5305728912353516,
          "365": 0.6966333389282227,
          "366": 0.3446831703186035,
          "367": -0.1471916288137436,
          "368": -0.6166267991065979,
          "369": -0.853813648223877,
          "370": 0.2695270776748657,
          "371": -0.24015134572982788,
          "372": 0.47876057028770447,
          "373": 0.9550971984863281,
          "374": 0.012267251498997211,
          "375": -0.13931411504745483,
          "376": 0.39434096217155457,
          "377": 0.8493010997772217,
          "378": 0.3663838803768158,
          "379": 0.4861050546169281,
          "380": -0.3008583188056946,
          "381": 0.31869056820869446,
          "382": 0.5103998184204102,
          "383": -0.8500927686691284,
          "384": -0.2703968286514282,
          "385": 0.5340449810028076,
          "386": 0.2984538674354553,
          "387": -1.4513436555862427,
          "388": -0.035798195749521255,
          "389": 0.4029315412044525,
          "390": 0.9898667335510254,
          "391": 0.32693585753440857,
          "392": -0.2238679677248001,
          "393": -0.23397012054920197,
          "394": -0.3688913881778717,
          "395": -0.4250469505786896,
          "396": 0.4012078046798706,
          "397": -0.9375985264778137,
          "398": 0.015566080808639526,
          "399": -0.7355184555053711,
          "400": -0.20714429020881653,
          "401": 0.6179253458976746,
          "402": -0.4098769426345825,
          "403": -0.01897890493273735,
          "404": -0.19692938029766083,
          "405": 0.203270822763443,
          "406": -0.7988190054893494,
          "407": -0.7160812020301819,
          "408": 0.09008315205574036,
          "409": 0.46504199504852295,
          "410": -0.3828936815261841,
          "411": -0.1586061269044876,
          "412": -0.5787433981895447,
          "413": 0.07801011204719543,
          "414": -0.07343482226133347,
          "415": -0.052719827741384506,
          "416": -0.2803679406642914,
          "417": 0.11046941578388214,
          "418": 0.009058209136128426,
          "419": 1.0748319625854492,
          "420": -0.6438937783241272,
          "421": -0.30543482303619385,
          "422": 0.10792402923107147,
          "423": 0.02060840278863907,
          "424": 0.6144064664840698,
          "425": -0.6536030173301697,
          "426": -0.39528965950012207,
          "427": 0.3009544014930725,
          "428": 0.9790594577789307,
          "429": 0.06043137237429619,
          "430": -0.9556275010108948,
          "431": 0.6841869950294495,
          "432": 0.6956049799919128,
          "433": -0.13323421776294708,
          "434": -0.1920810490846634,
          "435": -1.143196940422058,
          "436": 0.6252861618995667,
          "437": 0.1143643781542778,
          "438": 0.8633398413658142,
          "439": 1.2530072927474976
        }
      },
      "inputHidden": {
        "rows": 20,
        "columns": 20,
        "weights": {
          "0": 0.21098355948925018,
          "1": -0.27691224217414856,
          "2": 1.09003746509552,
          "3": -0.4369153082370758,
          "4": 0.12928467988967896,
          "5": -1.4642584323883057,
          "6": -0.026033906266093254,
          "7": -0.025821255519986153,
          "8": 0.0022248548921197653,
          "9": 1.065526008605957,
          "10": 0.056972455233335495,
          "11": 0.198338583111763,
          "12": 0.2386033535003662,
          "13": -0.22350125014781952,
          "14": -0.029970772564411163,
          "15": 1.063889503479004,
          "16": 0.16400215029716492,
          "17": 0.3867708444595337,
          "18": 0.027717340737581253,
          "19": 0.1141555905342102,
          "20": 0.48200464248657227,
          "21": -0.5417337417602539,
          "22": -0.10130090266466141,
          "23": -0.21234801411628723,
          "24": 0.05046343803405762,
          "25": 0.4311768710613251,
          "26": 0.0819135382771492,
          "27": -0.3211628198623657,
          "28": 0.31844857335090637,
          "29": -0.3958861529827118,
          "30": 0.2824041545391083,
          "31": 0.4692719280719757,
          "32": 0.23397766053676605,
          "33": -0.2847086191177368,
          "34": 0.3407198190689087,
          "35": 0.010646035894751549,
          "36": -0.08947505056858063,
          "37": 0.7031360864639282,
          "38": 0.4597841799259186,
          "39": 0.5060554146766663,
          "40": -0.15097062289714813,
          "41": 1.012381672859192,
          "42": -0.32510510087013245,
          "43": 0.08534061908721924,
          "44": 0.04216707497835159,
          "45": -0.2977406084537506,
          "46": -0.03405829891562462,
          "47": 0.0018825491424649954,
          "48": 0.18147990107536316,
          "49": -0.4643854796886444,
          "50": 0.003009699983522296,
          "51": 0.1012541651725769,
          "52": 0.2764551043510437,
          "53": -0.10004228353500366,
          "54": -0.2861909568309784,
          "55": -0.3523813486099243,
          "56": 0.2756211459636688,
          "57": -0.257694274187088,
          "58": 0.17000789940357208,
          "59": -0.12449144572019577,
          "60": 0.5832738876342773,
          "61": -0.17430560290813446,
          "62": 0.2321767657995224,
          "63": -1.1645492315292358,
          "64": -0.09892378002405167,
          "65": -0.17909663915634155,
          "66": 0.49377501010894775,
          "67": -0.17943495512008667,
          "68": 0.08703994750976562,
          "69": 0.4410201907157898,
          "70": 0.416810542345047,
          "71": 0.6436681151390076,
          "72": 0.05496381223201752,
          "73": -0.18482783436775208,
          "74": 0.2951686382293701,
          "75": 0.422432541847229,
          "76": -0.36488908529281616,
          "77": 0.8681026697158813,
          "78": 0.3029737174510956,
          "79": 0.9886804223060608,
          "80": 0.7015734910964966,
          "81": -0.6172447204589844,
          "82": 0.9385164380073547,
          "83": -0.27460095286369324,
          "84": 0.11787762492895126,
          "85": -0.8840264678001404,
          "86": 0.4921201765537262,
          "87": -0.45087718963623047,
          "88": 0.3522574305534363,
          "89": 0.7710001468658447,
          "90": 0.5000011920928955,
          "91": 0.44437193870544434,
          "92": 0.44728270173072815,
          "93": -0.2984943091869354,
          "94": 0.5577037930488586,
          "95": 0.7232632040977478,
          "96": 0.0705663412809372,
          "97": 0.39292311668395996,
          "98": 0.40863126516342163,
          "99": 0.7113544344902039,
          "100": -0.31670621037483215,
          "101": 0.7983766198158264,
          "102": -0.19623732566833496,
          "103": 0.10802192240953445,
          "104": 0.5490874648094177,
          "105": -1.2019708156585693,
          "106": 0.3643706738948822,
          "107": -0.3329424262046814,
          "108": 0.797501266002655,
          "109": 0.0722041055560112,
          "110": 0.0660153478384018,
          "111": 0.034413449466228485,
          "112": 1.7444568872451782,
          "113": -0.2479386031627655,
          "114": 0.5387938618659973,
          "115": 0.1505858302116394,
          "116": 1.065785527229309,
          "117": 0.7026923298835754,
          "118": 0.8602988123893738,
          "119": -0.9617604613304138,
          "120": 0.18990430235862732,
          "121": -0.19856807589530945,
          "122": 0.8982357382774353,
          "123": -0.0253745187073946,
          "124": 0.08644643425941467,
          "125": -1.3397557735443115,
          "126": 0.3335610032081604,
          "127": -0.3983413577079773,
          "128": 0.34348270297050476,
          "129": 0.9244661331176758,
          "130": 0.35311922430992126,
          "131": 0.26730138063430786,
          "132": 0.3549081087112427,
          "133": -0.2367015779018402,
          "134": 0.31288549304008484,
          "135": 1.0827053785324097,
          "136": 0.3107719123363495,
          "137": 0.7124924659729004,
          "138": 0.3018280267715454,
          "139": 0.1822948157787323,
          "140": 0.3634271025657654,
          "141": -0.47990846633911133,
          "142": 0.5202497839927673,
          "143": -0.2276293784379959,
          "144": 0.320813924074173,
          "145": -0.7796810269355774,
          "146": 0.3073667585849762,
          "147": -0.19996917247772217,
          "148": 0.37350597977638245,
          "149": 0.6039560437202454,
          "150": 0.2453349381685257,
          "151": 0.2460569143295288,
          "152": 0.21687376499176025,
          "153": -0.3269525468349457,
          "154": 0.2138945311307907,
          "155": 0.5225461721420288,
          "156": 0.3539668619632721,
          "157": 0.3030625283718109,
          "158": 0.25755974650382996,
          "159": 0.4433320462703705,
          "160": 0.49457794427871704,
          "161": -0.39340952038764954,
          "162": 0.8840909600257874,
          "163": -0.24283644556999207,
          "164": 0.11206767708063126,
          "165": -0.9654833078384399,
          "166": 0.4236755073070526,
          "167": -0.447106271982193,
          "168": 0.4298975467681885,
          "169": 0.9399694800376892,
          "170": 0.36109477281570435,
          "171": 0.3896274268627167,
          "172": 0.18660731613636017,
          "173": -0.27281519770622253,
          "174": 0.529947817325592,
          "175": 0.7733264565467834,
          "176": 0.13898825645446777,
          "177": 0.5098099708557129,
          "178": 0.3787149488925934,
          "179": 0.6158667802810669,
          "180": -0.6527439951896667,
          "181": 1.4875458478927612,
          "182": -0.10091582685709,
          "183": 0.3142852187156677,
          "184": -0.3932490050792694,
          "185": -0.9869186878204346,
          "186": -0.45386502146720886,
          "187": 0.3826679289340973,
          "188": -0.30911684036254883,
          "189": -0.260891854763031,
          "190": -0.26546168327331543,
          "191": -0.4541144371032715,
          "192": -0.15002067387104034,
          "193": 0.33602842688560486,
          "194": -0.33973538875579834,
          "195": -0.1707613468170166,
          "196": 0.0966985896229744,
          "197": -0.17626242339611053,
          "198": -0.23497842252254486,
          "199": -0.7958827018737793,
          "200": -0.1465657651424408,
          "201": 0.23129506409168243,
          "202": 0.7642751336097717,
          "203": -0.26070117950439453,
          "204": 0.19369012117385864,
          "205": -1.5917452573776245,
          "206": 0.1642017811536789,
          "207": -0.2869066596031189,
          "208": 0.19782134890556335,
          "209": 0.7436531782150269,
          "210": 0.3383258581161499,
          "211": 0.4141753017902374,
          "212": 0.2181331217288971,
          "213": -0.22479461133480072,
          "214": 0.2285776436328888,
          "215": 0.875203549861908,
          "216": 0.24120233952999115,
          "217": 0.3962726294994354,
          "218": 0.1939675658941269,
          "219": -0.14490391314029694,
          "220": 0.2724371552467346,
          "221": -0.09968172013759613,
          "222": 0.2755913734436035,
          "223": -0.1472392976284027,
          "224": 0.14591644704341888,
          "225": -0.8642165064811707,
          "226": 0.2078661024570465,
          "227": -0.5348219275474548,
          "228": 0.289897084236145,
          "229": 0.28405335545539856,
          "230": 0.361758291721344,
          "231": 0.17629864811897278,
          "232": 0.45926088094711304,
          "233": -0.14791516959667206,
          "234": 0.27050286531448364,
          "235": 0.29866963624954224,
          "236": 0.7308534383773804,
          "237": -0.22027483582496643,
          "238": 0.17315587401390076,
          "239": 0.2667122483253479,
          "240": -0.24166658520698547,
          "241": 0.649553656578064,
          "242": 0.9492412805557251,
          "243": -0.35853615403175354,
          "244": 0.08401983231306076,
          "245": -1.5864771604537964,
          "246": 0.356001615524292,
          "247": -0.39983120560646057,
          "248": 0.2805059850215912,
          "249": 1.008565902709961,
          "250": 0.42125287652015686,
          "251": 0.3875787854194641,
          "252": 0.6561184525489807,
          "253": -0.17905165255069733,
          "254": 0.3601304888725281,
          "255": 0.9610846042633057,
          "256": 0.5148683786392212,
          "257": 0.7501116394996643,
          "258": 0.24077659845352173,
          "259": -0.3715120255947113,
          "260": 0.42027968168258667,
          "261": -0.2705265283584595,
          "262": 1.3335598707199097,
          "263": -0.18035843968391418,
          "264": 0.09118957817554474,
          "265": -1.1383851766586304,
          "266": 0.3634929656982422,
          "267": -0.5282590985298157,
          "268": 0.3812659978866577,
          "269": 1.3278486728668213,
          "270": 0.4077475368976593,
          "271": 0.5615828633308411,
          "272": 0.18030530214309692,
          "273": -0.33930879831314087,
          "274": 0.46314510703086853,
          "275": 0.8839473724365234,
          "276": 0.5666428208351135,
          "277": 0.9369028210639954,
          "278": 0.3812802731990814,
          "279": 0.5551150441169739,
          "280": 0.21270473301410675,
          "281": -0.2634105086326599,
          "282": 0.6210339069366455,
          "283": -0.35851234197616577,
          "284": 0.03181535378098488,
          "285": -0.9048041105270386,
          "286": 0.23461014032363892,
          "287": -0.4099413752555847,
          "288": 0.25948503613471985,
          "289": 0.4748637080192566,
          "290": 0.3043195903301239,
          "291": 0.44055646657943726,
          "292": 0.1399536430835724,
          "293": -0.21124714612960815,
          "294": 0.35653287172317505,
          "295": 0.6863841414451599,
          "296": 0.025000853464007378,
          "297": 0.2288280427455902,
          "298": 0.3100021183490753,
          "299": 0.5354160666465759,
          "300": -0.3164769411087036,
          "301": 0.9900113940238953,
          "302": -0.28134047985076904,
          "303": 0.1832268387079239,
          "304": -1.0613709688186646,
          "305": -0.3081568479537964,
          "306": -0.34698230028152466,
          "307": 0.44578972458839417,
          "308": -0.8643059730529785,
          "309": -0.2351236641407013,
          "310": -0.14435018599033356,
          "311": -0.1050071120262146,
          "312": -0.5453105568885803,
          "313": 0.41084253787994385,
          "314": -0.32564300298690796,
          "315": -0.27765345573425293,
          "316": -0.4793943166732788,
          "317": -0.5298119187355042,
          "318": -0.08077305555343628,
          "319": -0.3805660903453827,
          "320": 0.8179003596305847,
          "321": -0.8183906078338623,
          "322": 0.4869897961616516,
          "323": -0.4019348919391632,
          "324": 1.113472580909729,
          "325": -0.7683701515197754,
          "326": 0.8938908576965332,
          "327": -0.5447517037391663,
          "328": 0.9831111431121826,
          "329": 0.4085097908973694,
          "330": 0.8134217262268066,
          "331": 0.8446877598762512,
          "332": 1.093973994255066,
          "333": -1.1567132472991943,
          "334": 0.7217893600463867,
          "335": 0.77633136510849,
          "336": 1.2094030380249023,
          "337": 0.23685720562934875,
          "338": 1.0056020021438599,
          "339": 0.7492473125457764,
          "340": 0.7806246876716614,
          "341": 0.3584677577018738,
          "342": 0.3901134431362152,
          "343": -0.602095901966095,
          "344": 0.12954382598400116,
          "345": -0.3798065185546875,
          "346": 0.926412045955658,
          "347": -1.223000407218933,
          "348": 1.0903441905975342,
          "349": 0.8076361417770386,
          "350": 0.7676697969436646,
          "351": 0.9158421754837036,
          "352": 0.943511426448822,
          "353": -0.9793068766593933,
          "354": 0.9639946818351746,
          "355": 0.8964048027992249,
          "356": 1.216770052909851,
          "357": 0.23663330078125,
          "358": 1.071808934211731,
          "359": 0.6740947365760803,
          "360": 0.4944775700569153,
          "361": -0.7077768445014954,
          "362": 0.8648614287376404,
          "363": -0.27278923988342285,
          "364": 0.2378193736076355,
          "365": -0.557547926902771,
          "366": 0.2943785488605499,
          "367": -0.4355859160423279,
          "368": 0.3164461851119995,
          "369": 0.7689382433891296,
          "370": 0.344631165266037,
          "371": 0.6431017518043518,
          "372": 0.21554678678512573,
          "373": -0.22644072771072388,
          "374": 0.46386954188346863,
          "375": 0.7662858366966248,
          "376": 0.0665169358253479,
          "377": 0.49609994888305664,
          "378": 0.30918800830841064,
          "379": 0.7689105868339539,
          "380": 0.08008436113595963,
          "381": 0.5575020909309387,
          "382": 0.7155253291130066,
          "383": -0.4804013669490814,
          "384": 0.1841166913509369,
          "385": -1.2239291667938232,
          "386": 0.2600654065608978,
          "387": -0.18859058618545532,
          "388": 0.19003178179264069,
          "389": 0.7009403705596924,
          "390": 0.06514798104763031,
          "391": 0.32824790477752686,
          "392": -0.0001652823411859572,
          "393": -0.2299036681652069,
          "394": 0.05665827542543411,
          "395": 0.5914158821105957,
          "396": 0.3263993263244629,
          "397": -0.37671297788619995,
          "398": 0.1285087913274765,
          "399": 0.12821607291698456
        }
      },
      "inputBias": {
        "rows": 20,
        "columns": 1,
        "weights": {
          "0": -0.7114758491516113,
          "1": 0.2104390412569046,
          "2": -0.27386990189552307,
          "3": -0.43635913729667664,
          "4": -0.4499850273132324,
          "5": 1.0258517265319824,
          "6": -0.2396664172410965,
          "7": -0.38156017661094666,
          "8": -0.3385087549686432,
          "9": -0.5332872271537781,
          "10": -0.27283066511154175,
          "11": -0.469847172498703,
          "12": -0.2635323703289032,
          "13": -0.5018742680549622,
          "14": -0.29199373722076416,
          "15": -0.5250183343887329,
          "16": -0.37171903252601624,
          "17": 0.9912160634994507,
          "18": -0.4240473508834839,
          "19": -0.6788405179977417
        }
      },
      "forgetMatrix": {
        "rows": 20,
        "columns": 22,
        "weights": {
          "0": -0.679776132106781,
          "1": 1.1533845663070679,
          "2": -0.6574134826660156,
          "3": 0.15851368010044098,
          "4": -0.003462912980467081,
          "5": 0.22810044884681702,
          "6": 1.0945507287979126,
          "7": -0.534300684928894,
          "8": -0.03297964110970497,
          "9": -0.07918968796730042,
          "10": 0.9013263583183289,
          "11": 0.34368184208869934,
          "12": -0.6686866283416748,
          "13": -0.05742911621928215,
          "14": 0.9087153673171997,
          "15": 0.32218050956726074,
          "16": 0.2800550162792206,
          "17": -0.736262321472168,
          "18": 0.921983540058136,
          "19": 0.3827453851699829,
          "20": 0.6894490718841553,
          "21": 0.43448108434677124,
          "22": -0.3334554433822632,
          "23": 0.8583084344863892,
          "24": -0.699519157409668,
          "25": 0.14794212579727173,
          "26": -0.3328457176685333,
          "27": -0.7992952466011047,
          "28": 1.1517478227615356,
          "29": -0.947476327419281,
          "30": 0.26470211148262024,
          "31": -0.2144748866558075,
          "32": 0.7838895320892334,
          "33": 0.5220205783843994,
          "34": -0.9853897094726562,
          "35": -0.060300540179014206,
          "36": 0.6094432473182678,
          "37": -0.9163536429405212,
          "38": 0.2576064169406891,
          "39": -0.987424373626709,
          "40": 0.6668652892112732,
          "41": 0.5649660229682922,
          "42": 0.8032042980194092,
          "43": 1.1416317224502563,
          "44": -0.33559635281562805,
          "45": 0.29286280274391174,
          "46": -0.040242258459329605,
          "47": -0.13253572583198547,
          "48": -0.2322503924369812,
          "49": 0.14331044256687164,
          "50": 0.38923394680023193,
          "51": -0.26934587955474854,
          "52": -0.2031577229499817,
          "53": 0.2824532389640808,
          "54": 0.18376211822032928,
          "55": 0.4132053852081299,
          "56": -0.5405794978141785,
          "57": 0.19494567811489105,
          "58": 0.24249719083309174,
          "59": 0.24145987629890442,
          "60": -0.18517543375492096,
          "61": -0.5032243132591248,
          "62": 0.506035566329956,
          "63": 0.37169599533081055,
          "64": 0.010764926671981812,
          "65": 0.38600051403045654,
          "66": 1.1820012331008911,
          "67": -0.9506613612174988,
          "68": -0.27317243814468384,
          "69": -0.043784551322460175,
          "70": -0.507386326789856,
          "71": -0.4669886827468872,
          "72": -0.5615126490592957,
          "73": -0.3224116861820221,
          "74": -0.6299141049385071,
          "75": 0.5596845149993896,
          "76": -0.44745510816574097,
          "77": -0.3409799337387085,
          "78": 0.10123851150274277,
          "79": 0.258551687002182,
          "80": -0.6348526477813721,
          "81": -0.1904495656490326,
          "82": -0.34015315771102905,
          "83": 0.11042967438697815,
          "84": -0.10992773622274399,
          "85": 0.049923934042453766,
          "86": 0.39385807514190674,
          "87": 0.11529236286878586,
          "88": -0.013751164078712463,
          "89": 0.21247917413711548,
          "90": -0.607035756111145,
          "91": -0.609898030757904,
          "92": -0.767983615398407,
          "93": -0.35211193561553955,
          "94": -0.20793884992599487,
          "95": -0.9541851282119751,
          "96": -0.6412302255630493,
          "97": 0.29884040355682373,
          "98": 0.4203878939151764,
          "99": -0.2405720353126526,
          "100": -0.6049132943153381,
          "101": 0.608867347240448,
          "102": 0.19870439171791077,
          "103": -0.2713857591152191,
          "104": -0.735787570476532,
          "105": -0.8401204943656921,
          "106": 0.5499588847160339,
          "107": -0.043700627982616425,
          "108": 0.7514826655387878,
          "109": 0.620347797870636,
          "110": 0.09429934620857239,
          "111": 0.520295262336731,
          "112": -1.2230745553970337,
          "113": -0.29422998428344727,
          "114": -0.5458057522773743,
          "115": -1.1720041036605835,
          "116": 1.0633213520050049,
          "117": -1.2743279933929443,
          "118": -0.0785023495554924,
          "119": 0.3978653848171234,
          "120": -0.013114075176417828,
          "121": 0.05563413351774216,
          "122": -1.0728249549865723,
          "123": 0.9884014129638672,
          "124": 0.33165687322616577,
          "125": -1.0510841608047485,
          "126": -0.29265299439430237,
          "127": -1.032336950302124,
          "128": 1.0826241970062256,
          "129": 1.393127202987671,
          "130": 0.7563833594322205,
          "131": 1.2734391689300537,
          "132": 0.34858250617980957,
          "133": 0.40548914670944214,
          "134": -0.39938274025917053,
          "135": -0.33884331583976746,
          "136": -0.37303122878074646,
          "137": 0.38563552498817444,
          "138": 0.19577814638614655,
          "139": -0.28158584237098694,
          "140": -0.5944198966026306,
          "141": 0.2662692368030548,
          "142": 0.33744990825653076,
          "143": -0.22431224584579468,
          "144": -0.23815524578094482,
          "145": 0.3093651533126831,
          "146": 0.13790655136108398,
          "147": 0.41959208250045776,
          "148": -0.4575619101524353,
          "149": -0.30364862084388733,
          "150": 0.45058199763298035,
          "151": -0.025426844134926796,
          "152": 0.38523250818252563,
          "153": 0.23100993037223816,
          "154": -0.34144285321235657,
          "155": 0.37685510516166687,
          "156": -0.3324555456638336,
          "157": -0.4136817455291748,
          "158": -0.39175593852996826,
          "159": -0.0167459174990654,
          "160": 0.35198745131492615,
          "161": -0.44553613662719727,
          "162": -0.5774185657501221,
          "163": 0.44946596026420593,
          "164": 0.4313518702983856,
          "165": -0.22368186712265015,
          "166": -0.4183858036994934,
          "167": 0.5995733737945557,
          "168": 0.22959810495376587,
          "169": 0.02170424349606037,
          "170": -0.6779450178146362,
          "171": -0.5610017776489258,
          "172": 0.3852706551551819,
          "173": 0.11310689151287079,
          "174": 0.4362083077430725,
          "175": 0.40134379267692566,
          "176": -0.10553453862667084,
          "177": 0.44198083877563477,
          "178": -0.3995412588119507,
          "179": -0.45725035667419434,
          "180": -0.5635036826133728,
          "181": -0.1123497411608696,
          "182": 0.4199755787849426,
          "183": -0.5182766318321228,
          "184": -0.4446042478084564,
          "185": 0.31352415680885315,
          "186": 0.32553908228874207,
          "187": -0.3158712089061737,
          "188": -0.4816421866416931,
          "189": 0.5335769653320312,
          "190": 0.4211183786392212,
          "191": -0.11382728815078735,
          "192": -0.535452663898468,
          "193": -0.51874178647995,
          "194": 0.4584388732910156,
          "195": 0.08759212493896484,
          "196": 0.5010718107223511,
          "197": 0.4118996858596802,
          "198": 0.28179964423179626,
          "199": -0.429011732339859,
          "200": 0.3154435157775879,
          "201": 0.01874595880508423,
          "202": 0.16436827182769775,
          "203": 0.2953524887561798,
          "204": -0.1535380631685257,
          "205": 0.3562237024307251,
          "206": -0.2658887207508087,
          "207": 0.13840077817440033,
          "208": 0.022837644442915916,
          "209": 0.3563810884952545,
          "210": 0.14693515002727509,
          "211": -0.18224629759788513,
          "212": -0.31484898924827576,
          "213": 0.3462160527706146,
          "214": -0.026153381913900375,
          "215": 0.13924257457256317,
          "216": -0.1856246292591095,
          "217": -0.5251204967498779,
          "218": -0.34724515676498413,
          "219": -0.4412868022918701,
          "220": 0.2084687501192093,
          "221": 0.6075712442398071,
          "222": -0.1719280630350113,
          "223": -0.21059925854206085,
          "224": -0.15896275639533997,
          "225": 0.7508149743080139,
          "226": 0.4674781560897827,
          "227": -0.30646228790283203,
          "228": -0.4604237675666809,
          "229": 0.5153800249099731,
          "230": 0.2808241844177246,
          "231": -0.262633353471756,
          "232": -0.4837816059589386,
          "233": 0.22450648248195648,
          "234": 0.13411349058151245,
          "235": 0.5149863362312317,
          "236": -0.4017001688480377,
          "237": -0.4002913236618042,
          "238": 0.35338088870048523,
          "239": -0.4486876130104065,
          "240": 0.17308717966079712,
          "241": 0.15360188484191895,
          "242": 0.9436068534851074,
          "243": -0.3531535565853119,
          "244": -0.22178898751735687,
          "245": -0.48074886202812195,
          "246": -0.8812215924263,
          "247": 0.38115957379341125,
          "248": -0.05885470286011696,
          "249": -0.003291793167591095,
          "250": -0.5368925333023071,
          "251": 0.48498842120170593,
          "252": -0.7297759056091309,
          "253": -0.6730182766914368,
          "254": 0.03367821127176285,
          "255": 0.31525471806526184,
          "256": -0.8036512732505798,
          "257": 0.4194582402706146,
          "258": -0.38966602087020874,
          "259": -0.021983308717608452,
          "260": 0.04138968512415886,
          "261": -0.26270541548728943,
          "262": 0.22840389609336853,
          "263": -0.16461841762065887,
          "264": -0.25970086455345154,
          "265": 0.5521429181098938,
          "266": -0.1863676905632019,
          "267": 0.5935485363006592,
          "268": 0.07246776670217514,
          "269": -0.5664196014404297,
          "270": 0.2625001072883606,
          "271": -0.19018255174160004,
          "272": 0.12582449615001678,
          "273": -0.46513885259628296,
          "274": 0.6221094131469727,
          "275": 0.6258054971694946,
          "276": -0.07561197131872177,
          "277": -0.3419365882873535,
          "278": 0.799990713596344,
          "279": -0.2737603783607483,
          "280": 0.468978613615036,
          "281": -0.050944287329912186,
          "282": 0.5364766716957092,
          "283": 0.5022271871566772,
          "284": 0.3581560552120209,
          "285": -0.11711698770523071,
          "286": 0.5557332038879395,
          "287": -0.1462046355009079,
          "288": -0.16309568285942078,
          "289": -0.5374179482460022,
          "290": -0.5543817281723022,
          "291": 0.2566360533237457,
          "292": -0.07768138498067856,
          "293": -0.18275855481624603,
          "294": -0.4005580544471741,
          "295": 0.24758760631084442,
          "296": -0.2687377333641052,
          "297": -0.5230326056480408,
          "298": -0.03235303983092308,
          "299": 0.5808345079421997,
          "300": -0.25086456537246704,
          "301": 0.28380683064460754,
          "302": -0.6761590242385864,
          "303": -0.24600809812545776,
          "304": 0.09848145395517349,
          "305": -0.22289973497390747,
          "306": 0.34252169728279114,
          "307": 0.0755176916718483,
          "308": -0.16761422157287598,
          "309": 0.5393577814102173,
          "310": -0.5419685244560242,
          "311": -0.4132775366306305,
          "312": -0.19165833294391632,
          "313": 0.10567035526037216,
          "314": 0.5955607891082764,
          "315": -0.4096646308898926,
          "316": -0.5732765793800354,
          "317": 0.7482422590255737,
          "318": 0.44871336221694946,
          "319": -0.19197258353233337,
          "320": -0.6110669374465942,
          "321": 0.18516607582569122,
          "322": 0.22354692220687866,
          "323": -0.035821955651044846,
          "324": -0.3490641713142395,
          "325": -0.5392751693725586,
          "326": 0.5699436664581299,
          "327": 0.11320479214191437,
          "328": 0.6230179071426392,
          "329": 0.387384831905365,
          "330": 0.19627049565315247,
          "331": -0.41627582907676697,
          "332": 0.03431074321269989,
          "333": -0.05145643278956413,
          "334": 0.3173237442970276,
          "335": -0.44407692551612854,
          "336": -0.2954978048801422,
          "337": 0.15755650401115417,
          "338": 0.14251708984375,
          "339": -0.24285516142845154,
          "340": -0.40633106231689453,
          "341": 0.46131259202957153,
          "342": 0.16627173125743866,
          "343": 0.20853914320468903,
          "344": -0.41230669617652893,
          "345": -0.4488990306854248,
          "346": 0.049992386251688004,
          "347": 0.23582234978675842,
          "348": -0.3060379922389984,
          "349": 0.13388171792030334,
          "350": -0.008536502718925476,
          "351": -0.23603153228759766,
          "352": -1.1208865642547607,
          "353": 0.7315972447395325,
          "354": -0.2847627103328705,
          "355": 0.06706297397613525,
          "356": -0.1956031620502472,
          "357": -1.385339379310608,
          "358": 0.40527746081352234,
          "359": -0.39184680581092834,
          "360": 0.39086687564849854,
          "361": -0.5703385472297668,
          "362": 0.21230189502239227,
          "363": 0.4134078323841095,
          "364": -0.19043686985969543,
          "365": -0.18723423779010773,
          "366": 0.4759799540042877,
          "367": -1.422903299331665,
          "368": 0.3379429876804352,
          "369": -0.20829635858535767,
          "370": 0.6964052319526672,
          "371": 1.242905855178833,
          "372": 0.24488426744937897,
          "373": 0.07048022747039795,
          "374": 0.601813554763794,
          "375": -0.6853520274162292,
          "376": 0.5757824182510376,
          "377": -0.0896109789609909,
          "378": 0.11890581250190735,
          "379": 0.608237087726593,
          "380": -0.6790217161178589,
          "381": 0.5064557194709778,
          "382": -0.19398656487464905,
          "383": 0.016449395567178726,
          "384": -0.45753583312034607,
          "385": -0.4720629155635834,
          "386": 0.7830082178115845,
          "387": 0.024856477975845337,
          "388": -0.6881347894668579,
          "389": 0.4350154399871826,
          "390": -0.0927814319729805,
          "391": 0.7389557361602783,
          "392": -0.3806720972061157,
          "393": -0.7925090789794922,
          "394": -0.6946733593940735,
          "395": -0.8583105802536011,
          "396": -0.18971194326877594,
          "397": 0.46133777499198914,
          "398": -0.36151036620140076,
          "399": -0.45751187205314636,
          "400": -0.48389557003974915,
          "401": -0.09514102339744568,
          "402": 0.3621947765350342,
          "403": -0.5490025281906128,
          "404": -0.4912249445915222,
          "405": 0.31354907155036926,
          "406": 0.5205727219581604,
          "407": -0.4011729061603546,
          "408": -0.39234286546707153,
          "409": 0.498909056186676,
          "410": 0.35667598247528076,
          "411": 0.06655871868133545,
          "412": -0.5832764506340027,
          "413": -0.390899658203125,
          "414": 0.46959543228149414,
          "415": 0.17912930250167847,
          "416": 0.4376264810562134,
          "417": 0.2542835772037506,
          "418": -0.7450884580612183,
          "419": 1.212029218673706,
          "420": -0.4373844861984253,
          "421": 0.2905159294605255,
          "422": 0.30698248744010925,
          "423": 0.28977981209754944,
          "424": 0.7470868229866028,
          "425": -0.4307192862033844,
          "426": 0.08355743438005447,
          "427": -0.2451392561197281,
          "428": 0.8425486087799072,
          "429": 0.7735418677330017,
          "430": -0.4184568226337433,
          "431": -0.37016555666923523,
          "432": 0.9740325808525085,
          "433": 0.1478700041770935,
          "434": 0.40748360753059387,
          "435": -0.5146759152412415,
          "436": 0.5289204716682434,
          "437": 0.3309707045555115,
          "438": 0.3485429883003235,
          "439": 0.3581501245498657
        }
      },
      "forgetHidden": {
        "rows": 20,
        "columns": 20,
        "weights": {
          "0": 0.2179662436246872,
          "1": -0.14539167284965515,
          "2": 0.5978206396102905,
          "3": -0.26065412163734436,
          "4": 0.21063409745693207,
          "5": -0.11734875291585922,
          "6": 0.13115565478801727,
          "7": -0.1300533562898636,
          "8": 0.23232567310333252,
          "9": 0.3030490577220917,
          "10": 0.23448966443538666,
          "11": 0.22795671224594116,
          "12": 0.24201001226902008,
          "13": -0.12417987734079361,
          "14": 0.11972653120756149,
          "15": 0.2752998173236847,
          "16": 0.14584872126579285,
          "17": 0.2810738682746887,
          "18": 0.29361382126808167,
          "19": 0.19761361181735992,
          "20": 0.29754263162612915,
          "21": -0.3187565803527832,
          "22": 1.562077283859253,
          "23": -0.2706654667854309,
          "24": 0.3003649115562439,
          "25": -0.47281700372695923,
          "26": 0.22876746952533722,
          "27": -0.3978315591812134,
          "28": 0.19192136824131012,
          "29": 0.7114813923835754,
          "30": 0.1982429027557373,
          "31": 0.45634162425994873,
          "32": 0.4149005115032196,
          "33": -0.30123284459114075,
          "34": 0.1955433189868927,
          "35": 0.8027268052101135,
          "36": 0.34410497546195984,
          "37": 0.03392829746007919,
          "38": 0.31754544377326965,
          "39": 0.4910220503807068,
          "40": 0.6328701376914978,
          "41": 0.03078392520546913,
          "42": -0.9769969582557678,
          "43": 1.8936570882797241,
          "44": 0.014521640725433826,
          "45": 0.6297555565834045,
          "46": -0.11334825307130814,
          "47": 0.24956843256950378,
          "48": -0.09192384034395218,
          "49": -0.6706390976905823,
          "50": 1.6639440059661865,
          "51": -0.2581852972507477,
          "52": -0.22950021922588348,
          "53": -0.10765255242586136,
          "54": -0.228154718875885,
          "55": -0.5274653434753418,
          "56": -0.9286863803863525,
          "57": 0.16418005526065826,
          "58": 0.022406000643968582,
          "59": 0.6484693884849548,
          "60": 0.5167023539543152,
          "61": -0.2813737094402313,
          "62": -0.4439476728439331,
          "63": 0.1392873227596283,
          "64": 0.39229413866996765,
          "65": 0.9347290396690369,
          "66": 0.3649544417858124,
          "67": -0.35707634687423706,
          "68": 0.5534107685089111,
          "69": -0.02804553508758545,
          "70": 0.3433462083339691,
          "71": 0.32539644837379456,
          "72": 0.5030856132507324,
          "73": -0.35962358117103577,
          "74": 0.4461365044116974,
          "75": -0.04506109282374382,
          "76": 0.47972342371940613,
          "77": -0.1577329933643341,
          "78": 0.378071665763855,
          "79": 0.4700629413127899,
          "80": 0.29757678508758545,
          "81": -0.41969427466392517,
          "82": 0.2676977217197418,
          "83": -0.2596508264541626,
          "84": 0.19136536121368408,
          "85": 0.4417194128036499,
          "86": 0.14764076471328735,
          "87": -0.15510952472686768,
          "88": 0.15452933311462402,
          "89": 0.23080098628997803,
          "90": 0.21125154197216034,
          "91": 0.18309292197227478,
          "92": 0.19933299720287323,
          "93": -0.17608524858951569,
          "94": 0.14561188220977783,
          "95": 0.28016969561576843,
          "96": 0.11555416882038116,
          "97": 0.3608434200286865,
          "98": 0.1565558761358261,
          "99": 0.28522101044654846,
          "100": 0.3731595575809479,
          "101": 0.2991286814212799,
          "102": -0.6507763266563416,
          "103": -0.09636934101581573,
          "104": 0.0767565593123436,
          "105": -0.3447915017604828,
          "106": 0.08668628334999084,
          "107": 0.09269993752241135,
          "108": 0.023484570905566216,
          "109": 0.35778138041496277,
          "110": -0.03195694461464882,
          "111": 0.08960268646478653,
          "112": -0.013178719207644463,
          "113": -0.02337796799838543,
          "114": -0.09974769502878189,
          "115": 0.1920493245124817,
          "116": -0.0374799408018589,
          "117": 0.20343947410583496,
          "118": -0.050725266337394714,
          "119": 0.3850727677345276,
          "120": 0.2526607811450958,
          "121": -0.2807103991508484,
          "122": 0.23858612775802612,
          "123": -0.29396891593933105,
          "124": 0.30267611145973206,
          "125": 0.4856051504611969,
          "126": 0.3429966866970062,
          "127": -0.36001449823379517,
          "128": 0.2958236336708069,
          "129": 0.24821457266807556,
          "130": 0.24352209270000458,
          "131": 0.34424981474876404,
          "132": 0.37484320998191833,
          "133": -0.2703271508216858,
          "134": 0.32963553071022034,
          "135": 0.3666495680809021,
          "136": 0.35920682549476624,
          "137": 0.29969102144241333,
          "138": 0.2974236309528351,
          "139": 0.3998843729496002,
          "140": 0.24691492319107056,
          "141": -0.2826232314109802,
          "142": 0.2801511883735657,
          "143": -0.23261702060699463,
          "144": 0.18213725090026855,
          "145": 0.037834282964468,
          "146": 0.1893550157546997,
          "147": -0.24720603227615356,
          "148": 0.31059548258781433,
          "149": 0.35396987199783325,
          "150": 0.3266937732696533,
          "151": 0.19054380059242249,
          "152": 0.21974404156208038,
          "153": -0.2840802073478699,
          "154": 0.23382462561130524,
          "155": 0.3795710504055023,
          "156": 0.25671347975730896,
          "157": 0.3254695534706116,
          "158": 0.1805029660463333,
          "159": 0.3144087493419647,
          "160": 0.28840917348861694,
          "161": -0.12414656579494476,
          "162": 0.10302543640136719,
          "163": -0.32483914494514465,
          "164": 0.30010828375816345,
          "165": 0.125790536403656,
          "166": 0.3068615198135376,
          "167": -0.25210002064704895,
          "168": 0.20873387157917023,
          "169": 0.24351143836975098,
          "170": 0.2125837504863739,
          "171": 0.2812584936618805,
          "172": 0.3494168519973755,
          "173": -0.2949909567832947,
          "174": 0.25453346967697144,
          "175": 0.32726144790649414,
          "176": 0.2703930139541626,
          "177": 0.3582763671875,
          "178": 0.2861688733100891,
          "179": 0.2731650173664093,
          "180": -0.09531368315219879,
          "181": 0.2601364552974701,
          "182": -0.8780950307846069,
          "183": 0.4588921368122101,
          "184": -0.3861292898654938,
          "185": 1.0611381530761719,
          "186": -0.2374383509159088,
          "187": 0.24823369085788727,
          "188": -0.2784217298030853,
          "189": -1.045292615890503,
          "190": -0.19316039979457855,
          "191": -0.32706186175346375,
          "192": -0.20384085178375244,
          "193": 0.28883469104766846,
          "194": -0.1986265778541565,
          "195": -0.8133019208908081,
          "196": -0.6641128063201904,
          "197": -0.013371594250202179,
          "198": -0.2831999361515045,
          "199": -0.08504873514175415,
          "200": 0.12061429023742676,
          "201": 0.048600442707538605,
          "202": -0.25225675106048584,
          "203": -0.3089756667613983,
          "204": 0.2607467472553253,
          "205": 0.1612507700920105,
          "206": 0.2023708075284958,
          "207": -0.2899753153324127,
          "208": 0.23761236667633057,
          "209": 0.2509922385215759,
          "210": 0.18567156791687012,
          "211": 0.26800915598869324,
          "212": 0.2003643810749054,
          "213": -0.20060792565345764,
          "214": 0.2598068118095398,
          "215": 0.27975356578826904,
          "216": 0.18682950735092163,
          "217": 0.1937858909368515,
          "218": 0.2717374563217163,
          "219": 0.23207098245620728,
          "220": 0.4437907040119171,
          "221": -0.5334810018539429,
          "222": 0.23145487904548645,
          "223": -0.37050625681877136,
          "224": 0.6864326596260071,
          "225": 0.22321519255638123,
          "226": 0.29357218742370605,
          "227": -0.38131025433540344,
          "228": 0.27142488956451416,
          "229": 0.2787989377975464,
          "230": 0.35599246621131897,
          "231": 0.2584248483181,
          "232": 0.4144290089607239,
          "233": -0.3328723609447479,
          "234": 0.18568500876426697,
          "235": 0.2022048681974411,
          "236": 0.7374657988548279,
          "237": 0.4501909911632538,
          "238": 0.22085492312908173,
          "239": 0.47354063391685486,
          "240": 0.4168204069137573,
          "241": 0.10213485360145569,
          "242": -0.2950286865234375,
          "243": -0.38528695702552795,
          "244": 0.31299784779548645,
          "245": 0.14082524180412292,
          "246": 0.3338630795478821,
          "247": -0.418498694896698,
          "248": 0.46673357486724854,
          "249": 0.11001124978065491,
          "250": 0.3603191375732422,
          "251": 0.49546414613723755,
          "252": 0.14888831973075867,
          "253": -0.337825208902359,
          "254": 0.358940452337265,
          "255": 0.27851858735084534,
          "256": 0.3398081958293915,
          "257": 0.2939223647117615,
          "258": 0.3747064471244812,
          "259": 0.2970079779624939,
          "260": 0.39468127489089966,
          "261": -0.2846987843513489,
          "262": 0.09543691575527191,
          "263": -0.23585039377212524,
          "264": 0.34425970911979675,
          "265": 0.18759098649024963,
          "266": 0.26031923294067383,
          "267": -0.10515861958265305,
          "268": 0.3153495192527771,
          "269": 0.21231423318386078,
          "270": 0.2401522547006607,
          "271": 0.20862671732902527,
          "272": 0.24246378242969513,
          "273": -0.2133817821741104,
          "274": 0.240525484085083,
          "275": 0.266163170337677,
          "276": 0.28615710139274597,
          "277": 0.4963143467903137,
          "278": 0.16023004055023193,
          "279": 0.33110204339027405,
          "280": 0.17730233073234558,
          "281": -0.17500436305999756,
          "282": 0.06781797856092453,
          "283": -0.22658021748065948,
          "284": 0.25220075249671936,
          "285": 0.0778547003865242,
          "286": 0.2333192229270935,
          "287": -0.31264111399650574,
          "288": 0.22680114209651947,
          "289": 0.2555321753025055,
          "290": 0.3038748502731323,
          "291": 0.21045750379562378,
          "292": 0.2167237102985382,
          "293": -0.23695223033428192,
          "294": 0.23320859670639038,
          "295": 0.2838974595069885,
          "296": 0.17985907196998596,
          "297": 0.30536550283432007,
          "298": 0.3205350339412689,
          "299": 0.2970963418483734,
          "300": 0.5049257874488831,
          "301": -0.2707522213459015,
          "302": -0.6649354696273804,
          "303": 0.49368441104888916,
          "304": -0.339600145816803,
          "305": 1.095011830329895,
          "306": -0.21637633442878723,
          "307": 0.33715230226516724,
          "308": -0.3302499055862427,
          "309": -0.5278795957565308,
          "310": -0.266802042722702,
          "311": -0.5051627159118652,
          "312": -0.44850605726242065,
          "313": 0.33874380588531494,
          "314": -0.21953557431697845,
          "315": -1.1630977392196655,
          "316": -0.3974972069263458,
          "317": -0.5947770476341248,
          "318": -0.30129191279411316,
          "319": 0.5680996775627136,
          "320": 0.5332586169242859,
          "321": -0.4527961313724518,
          "322": -0.9763277769088745,
          "323": -0.3303976356983185,
          "324": 0.06233396753668785,
          "325": 0.5640955567359924,
          "326": 0.22096280753612518,
          "327": -0.2181747853755951,
          "328": 0.13525904715061188,
          "329": -0.3152382969856262,
          "330": 0.10997740179300308,
          "331": -0.07490881532430649,
          "332": 0.4826382100582123,
          "333": -0.19855467975139618,
          "334": 0.15042416751384735,
          "335": -0.35008421540260315,
          "336": 0.028111178427934647,
          "337": 0.5519527792930603,
          "338": 0.23067381978034973,
          "339": 0.4855196177959442,
          "340": 0.2582361698150635,
          "341": 0.7633166313171387,
          "342": -0.3609917163848877,
          "343": -0.3269559442996979,
          "344": -0.2097172737121582,
          "345": 0.9796650409698486,
          "346": 0.8172404766082764,
          "347": -0.6255286335945129,
          "348": 0.6743404269218445,
          "349": 0.09631285816431046,
          "350": 0.9900806546211243,
          "351": 0.3863161504268646,
          "352": 0.38443201780319214,
          "353": -0.4956631064414978,
          "354": 0.8030474185943604,
          "355": 0.34904417395591736,
          "356": 1.0203924179077148,
          "357": 0.2817501723766327,
          "358": 0.4848270118236542,
          "359": -0.005554835312068462,
          "360": 0.24136099219322205,
          "361": -0.2015456110239029,
          "362": 0.26685789227485657,
          "363": -0.1959303468465805,
          "364": 0.17498308420181274,
          "365": 0.010947161354124546,
          "366": 0.28938761353492737,
          "367": -0.1544378697872162,
          "368": 0.26428183913230896,
          "369": 0.36665692925453186,
          "370": 0.3225195109844208,
          "371": 0.26521381735801697,
          "372": 0.235373854637146,
          "373": -0.2775079905986786,
          "374": 0.15434812009334564,
          "375": 0.25739121437072754,
          "376": 0.20812830328941345,
          "377": 0.2758147120475769,
          "378": 0.14769268035888672,
          "379": 0.21871612966060638,
          "380": 0.01154977735131979,
          "381": 0.2532302439212799,
          "382": 1.0721224546432495,
          "383": -0.27743351459503174,
          "384": 0.18992656469345093,
          "385": -0.02650456316769123,
          "386": 0.1392093151807785,
          "387": -0.09429703652858734,
          "388": 0.13350997865200043,
          "389": 0.47149747610092163,
          "390": 0.19377022981643677,
          "391": -0.08360861241817474,
          "392": 0.2528664767742157,
          "393": -0.1277121901512146,
          "394": 0.05109376087784767,
          "395": 0.4921884536743164,
          "396": 0.4310506582260132,
          "397": 0.11163931339979172,
          "398": 0.07751303911209106,
          "399": -0.044133368879556656
        }
      },
      "forgetBias": {
        "rows": 20,
        "columns": 1,
        "weights": {
          "0": 0,
          "1": 0,
          "2": 0,
          "3": 0,
          "4": 0,
          "5": 0,
          "6": 0,
          "7": 0,
          "8": 0,
          "9": 0,
          "10": 0,
          "11": 0,
          "12": 0,
          "13": 0,
          "14": 0,
          "15": 0,
          "16": 0,
          "17": 0,
          "18": 0,
          "19": 0
        }
      },
      "outputMatrix": {
        "rows": 20,
        "columns": 22,
        "weights": {
          "0": -0.47227951884269714,
          "1": 0.6371941566467285,
          "2": -0.8049285411834717,
          "3": -0.36905553936958313,
          "4": 0.3793621361255646,
          "5": -0.315213680267334,
          "6": 0.9666590690612793,
          "7": -0.8963322639465332,
          "8": -0.12114762514829636,
          "9": 0.1338137686252594,
          "10": 0.3210337460041046,
          "11": -0.2407776266336441,
          "12": -0.8559263944625854,
          "13": 0.40051424503326416,
          "14": 0.6627190113067627,
          "15": -0.4364878237247467,
          "16": -0.3180027902126312,
          "17": -0.8679502010345459,
          "18": 0.8159101009368896,
          "19": 0.4116817116737366,
          "20": 0.7474192380905151,
          "21": 0.9315835237503052,
          "22": -0.5439623594284058,
          "23": 0.2618975043296814,
          "24": -0.9858027100563049,
          "25": 0.08627721667289734,
          "26": -0.6862571239471436,
          "27": -0.943522572517395,
          "28": 0.7673437595367432,
          "29": -0.7738829255104065,
          "30": -0.12818945944309235,
          "31": 0.11684667319059372,
          "32": 0.3118336498737335,
          "33": 0.0655401423573494,
          "34": -1.1285295486450195,
          "35": 0.011248725466430187,
          "36": 0.7013234496116638,
          "37": -0.897982120513916,
          "38": 0.020335059612989426,
          "39": -0.9535236954689026,
          "40": 0.8566800355911255,
          "41": 1.3368854522705078,
          "42": 1.00550377368927,
          "43": 0.726009726524353,
          "44": 0.03128240257501602,
          "45": -0.022129660472273827,
          "46": 0.687757670879364,
          "47": 0.7607843279838562,
          "48": 1.5520402193069458,
          "49": 0.7097629308700562,
          "50": -0.19535885751247406,
          "51": 0.24561142921447754,
          "52": 1.360758662223816,
          "53": -0.9987013339996338,
          "54": -0.6373710632324219,
          "55": 0.8476606011390686,
          "56": 0.3093729317188263,
          "57": -0.7337610125541687,
          "58": -0.2541390359401703,
          "59": 0.8393732309341431,
          "60": 1.1276394128799438,
          "61": 0.238473579287529,
          "62": -0.47841933369636536,
          "63": -0.8828108906745911,
          "64": -1.0333818197250366,
          "65": -0.5168825387954712,
          "66": 0.15939268469810486,
          "67": -0.334725022315979,
          "68": 0.4750439524650574,
          "69": 0.03672395274043083,
          "70": 0.8303993940353394,
          "71": 0.3521168828010559,
          "72": -0.04425983503460884,
          "73": 0.5311317443847656,
          "74": 0.16988399624824524,
          "75": -0.4560111165046692,
          "76": -0.6961739659309387,
          "77": -0.6445377469062805,
          "78": 0.41632747650146484,
          "79": -0.4776940941810608,
          "80": -0.20136907696723938,
          "81": 0.36188066005706787,
          "82": 0.5193173885345459,
          "83": 0.4293524920940399,
          "84": -0.06359249353408813,
          "85": 0.15315470099449158,
          "86": -0.6827811002731323,
          "87": -0.5838947296142578,
          "88": 0.5187211036682129,
          "89": -0.07109775394201279,
          "90": -0.4763784408569336,
          "91": -0.5075438022613525,
          "92": -0.44470396637916565,
          "93": 0.01696069911122322,
          "94": 0.04936349764466286,
          "95": -1.1668975353240967,
          "96": -0.6321845054626465,
          "97": 0.3471139967441559,
          "98": -0.07720308005809784,
          "99": -0.553859531879425,
          "100": -1.0481798648834229,
          "101": 0.4072105884552002,
          "102": 0.3114011287689209,
          "103": -0.1911098062992096,
          "104": -0.46501675248146057,
          "105": -1.0457170009613037,
          "106": 0.7067072987556458,
          "107": -0.0014834817266091704,
          "108": 0.5335955619812012,
          "109": 0.9576927423477173,
          "110": -2.1324102878570557,
          "111": 0.7054674029350281,
          "112": 0.2757314443588257,
          "113": 0.7552636861801147,
          "114": 1.169644832611084,
          "115": 0.0403997078537941,
          "116": 0.28497400879859924,
          "117": 0.17364630103111267,
          "118": 1.0514940023422241,
          "119": -0.9050225019454956,
          "120": 0.89656001329422,
          "121": 1.3815323114395142,
          "122": -0.3281942903995514,
          "123": -0.7552139163017273,
          "124": 0.4968785345554352,
          "125": -0.4934602379798889,
          "126": 0.9762462973594666,
          "127": -0.19152909517288208,
          "128": -0.006876717787235975,
          "129": 0.4162592589855194,
          "130": -0.21583512425422668,
          "131": -0.034858088940382004,
          "132": 0.6110665202140808,
          "133": -0.08685179054737091,
          "134": 0.05779431015253067,
          "135": -0.7210991382598877,
          "136": -0.3161126375198364,
          "137": 0.5622962117195129,
          "138": -0.1383654773235321,
          "139": 0.10568127036094666,
          "140": -0.7058712840080261,
          "141": 0.7001895904541016,
          "142": -0.07462705671787262,
          "143": -0.7486923336982727,
          "144": -0.026765670627355576,
          "145": 0.6183100342750549,
          "146": -0.10723785310983658,
          "147": 0.45938101410865784,
          "148": -0.6796011924743652,
          "149": -0.07362300902605057,
          "150": -0.07274321466684341,
          "151": -0.4904990792274475,
          "152": -0.03212404251098633,
          "153": 0.08458907157182693,
          "154": 0.21844486892223358,
          "155": -0.38890916109085083,
          "156": 0.33399850130081177,
          "157": -0.6957228779792786,
          "158": -0.23660309612751007,
          "159": 1.0061534643173218,
          "160": -0.5922495126724243,
          "161": 0.2323751300573349,
          "162": -0.6293298006057739,
          "163": 0.5916183590888977,
          "164": 0.03759249299764633,
          "165": -0.5612840056419373,
          "166": -0.09824132174253464,
          "167": 0.5158217549324036,
          "168": -0.5692869424819946,
          "169": 0.7722563743591309,
          "170": -0.6664049029350281,
          "171": -0.1976129412651062,
          "172": -0.20289653539657593,
          "173": -0.6214263439178467,
          "174": -0.09911136329174042,
          "175": 0.06661330908536911,
          "176": 0.4636857211589813,
          "177": -0.4346649944782257,
          "178": -0.02743559703230858,
          "179": -0.45058706402778625,
          "180": -0.2835061848163605,
          "181": 0.5103120803833008,
          "182": -0.6241405010223389,
          "183": -0.26628974080085754,
          "184": -0.3865097761154175,
          "185": 0.22487257421016693,
          "186": -0.2741241455078125,
          "187": -0.3691030740737915,
          "188": -0.1553221493959427,
          "189": 0.3300986588001251,
          "190": -0.23726734519004822,
          "191": 0.2736145555973053,
          "192": -0.3963216245174408,
          "193": -0.18166184425354004,
          "194": -0.21862280368804932,
          "195": -0.14126458764076233,
          "196": 0.04795001819729805,
          "197": 0.3405976891517639,
          "198": 0.17235538363456726,
          "199": -0.623034656047821,
          "200": 0.7859868407249451,
          "201": 0.6549080610275269,
          "202": 1.0470757484436035,
          "203": 1.388532042503357,
          "204": -0.5431299805641174,
          "205": 0.6592599153518677,
          "206": 0.8651000261306763,
          "207": -0.564531683921814,
          "208": -0.7050189971923828,
          "209": 0.6948266625404358,
          "210": 0.5988970398902893,
          "211": -0.4241378903388977,
          "212": -0.5606785416603088,
          "213": 0.8493099808692932,
          "214": 0.5747354626655579,
          "215": 0.49509143829345703,
          "216": -0.7285009026527405,
          "217": -1.4624831676483154,
          "218": -1.3955785036087036,
          "219": -0.5234737992286682,
          "220": 0.406581312417984,
          "221": -0.26199057698249817,
          "222": 0.7411664724349976,
          "223": 0.030204208567738533,
          "224": 0.37163931131362915,
          "225": 1.584072232246399,
          "226": -0.4556168019771576,
          "227": 0.6109643578529358,
          "228": -0.3902910053730011,
          "229": 0.3200654685497284,
          "230": -0.07943760603666306,
          "231": -0.28187206387519836,
          "232": 0.027973290532827377,
          "233": -0.3968767523765564,
          "234": -0.2754046618938446,
          "235": 1.0392956733703613,
          "236": 0.007505932357162237,
          "237": -0.04132490232586861,
          "238": -0.3594929277896881,
          "239": -1.3037904500961304,
          "240": -0.7239044904708862,
          "241": -0.40733644366264343,
          "242": -0.2057541161775589,
          "243": 0.5918311476707458,
          "244": -0.70634526014328,
          "245": -0.6410779356956482,
          "246": -0.18148812651634216,
          "247": -0.04881129413843155,
          "248": 0.5772498846054077,
          "249": -0.7212294936180115,
          "250": -0.6237735748291016,
          "251": 0.721931517124176,
          "252": 1.059041142463684,
          "253": -0.5551393032073975,
          "254": -0.8091980218887329,
          "255": 0.5057175159454346,
          "256": 0.4467480182647705,
          "257": -0.05398121476173401,
          "258": -0.5671938061714172,
          "259": -0.9241786599159241,
          "260": 0.5637324452400208,
          "261": 0.15078561007976532,
          "262": 0.8460208773612976,
          "263": 0.9927757978439331,
          "264": 1.2031548023223877,
          "265": -0.8353102803230286,
          "266": 0.43997013568878174,
          "267": 0.3849232792854309,
          "268": -0.552960991859436,
          "269": 0.6721470355987549,
          "270": -0.990088164806366,
          "271": 0.038864921778440475,
          "272": -0.3266901969909668,
          "273": -0.04779437556862831,
          "274": -0.7093418836593628,
          "275": 0.014743193984031677,
          "276": 0.6763145923614502,
          "277": -0.2713615596294403,
          "278": -0.8345782160758972,
          "279": 0.7543242573738098,
          "280": -0.25372931361198425,
          "281": 0.6132286190986633,
          "282": -0.5676834583282471,
          "283": -0.6662595868110657,
          "284": -0.5299155712127686,
          "285": -0.7164880633354187,
          "286": 0.7310724258422852,
          "287": -0.5127516984939575,
          "288": -0.24973613023757935,
          "289": -0.2929743230342865,
          "290": -0.1592499017715454,
          "291": 0.15915918350219727,
          "292": -0.44410818815231323,
          "293": -0.16773594915866852,
          "294": 0.2107781618833542,
          "295": -0.15117670595645905,
          "296": -0.7918223142623901,
          "297": -0.19354934990406036,
          "298": -0.10856650024652481,
          "299": 0.3712158203125,
          "300": -0.0073034800589084625,
          "301": -0.07766950875520706,
          "302": -0.3366401195526123,
          "303": -0.046935390681028366,
          "304": -0.1559743583202362,
          "305": 0.20329542458057404,
          "306": 0.10387881100177765,
          "307": 0.32424283027648926,
          "308": 0.4941208064556122,
          "309": -0.0079779252409935,
          "310": 0.3966519832611084,
          "311": -0.595603346824646,
          "312": 0.20253430306911469,
          "313": 1.0849463939666748,
          "314": -0.15734244883060455,
          "315": 0.35855284333229065,
          "316": -0.8564486503601074,
          "317": 0.8688927888870239,
          "318": -0.16710929572582245,
          "319": -0.643445611000061,
          "320": -0.0920189693570137,
          "321": 0.04905437305569649,
          "322": -0.35916346311569214,
          "323": 0.9493918418884277,
          "324": -0.30504655838012695,
          "325": -0.11633606255054474,
          "326": 0.010619748383760452,
          "327": -1.0174728631973267,
          "328": -0.42681220173835754,
          "329": -0.11987677216529846,
          "330": -0.6802752017974854,
          "331": 0.4021887481212616,
          "332": 0.9213809967041016,
          "333": 0.39991578459739685,
          "334": 1.077752709388733,
          "335": 1.028232455253601,
          "336": 0.17478680610656738,
          "337": 0.2727391719818115,
          "338": 1.130974292755127,
          "339": -0.8634850382804871,
          "340": 0.01874632015824318,
          "341": 0.7094788551330566,
          "342": -0.01998576894402504,
          "343": -0.3181532323360443,
          "344": 0.3285911977291107,
          "345": 0.8509863615036011,
          "346": 0.5735655426979065,
          "347": -0.025375954806804657,
          "348": -0.13523177802562714,
          "349": -0.9053736925125122,
          "350": -1.2448921203613281,
          "351": 0.02549470216035843,
          "352": -0.13435639441013336,
          "353": 0.5297000408172607,
          "354": -0.7226293087005615,
          "355": -0.35238826274871826,
          "356": -0.01299450546503067,
          "357": -0.36169472336769104,
          "358": 0.20511704683303833,
          "359": -0.9739692211151123,
          "360": 0.020232610404491425,
          "361": -0.26047438383102417,
          "362": 0.39542853832244873,
          "363": -0.2055605947971344,
          "364": -0.841319739818573,
          "365": 0.6762401461601257,
          "366": 0.4496450424194336,
          "367": -0.6878693699836731,
          "368": -0.32962319254875183,
          "369": -0.9565632343292236,
          "370": 0.6032719612121582,
          "371": 0.5652078986167908,
          "372": 0.7880828976631165,
          "373": 0.9816568493843079,
          "374": 0.0625608041882515,
          "375": -0.4160061180591583,
          "376": 0.2005138099193573,
          "377": 0.5475786924362183,
          "378": 0.7521571516990662,
          "379": 0.4533268213272095,
          "380": -0.39165744185447693,
          "381": 0.3674432337284088,
          "382": 0.20257563889026642,
          "383": -0.3566032648086548,
          "384": -0.4705428183078766,
          "385": 0.010421458631753922,
          "386": 0.3757766783237457,
          "387": -0.5518376231193542,
          "388": -0.40472298860549927,
          "389": 0.09208166599273682,
          "390": 0.49772360920906067,
          "391": 0.44628334045410156,
          "392": -0.32147762179374695,
          "393": -0.11775960773229599,
          "394": -0.4517594873905182,
          "395": -0.5385251045227051,
          "396": 0.32473063468933105,
          "397": -1.059320092201233,
          "398": 0.12827160954475403,
          "399": -0.7743796706199646,
          "400": -0.011430231854319572,
          "401": 0.7613880634307861,
          "402": -0.6105272173881531,
          "403": 0.10587708652019501,
          "404": -0.09333329647779465,
          "405": 0.03070155344903469,
          "406": -0.7094764113426208,
          "407": -0.6310462951660156,
          "408": 0.19199107587337494,
          "409": 0.48070186376571655,
          "410": -0.5431539416313171,
          "411": 0.12188935279846191,
          "412": -0.5597763061523438,
          "413": 0.062104612588882446,
          "414": -0.29397866129875183,
          "415": -0.33373746275901794,
          "416": -0.41348451375961304,
          "417": -0.07776983827352524,
          "418": -0.41207700967788696,
          "419": 1.210921049118042,
          "420": -0.5638222694396973,
          "421": -0.44598641991615295,
          "422": -0.20269005000591278,
          "423": 0.0030287650879472494,
          "424": 0.6584790945053101,
          "425": -0.7038789987564087,
          "426": -0.411072701215744,
          "427": 0.37840959429740906,
          "428": 1.3760572671890259,
          "429": -0.1578304022550583,
          "430": -0.8861883878707886,
          "431": 0.442527174949646,
          "432": 0.6212838888168335,
          "433": -0.06471870839595795,
